digraph Tree {
node [shape=box, style="filled, rounded", color="black", fontname=helvetica] ;
edge [fontname=helvetica] ;
0 [label="petal length (cm) <= 2.45\ngini = 0.66\nsamples = 99\nvalue = [58, 52, 40]\nclass = setosa", fillcolor="#e5813910"] ;
1 [label="gini = 0.0\nsamples = 33\nvalue = [58, 0, 0]\nclass = setosa", fillcolor="#e58139ff"] ;
0 -> 1 [labeldistance=2.5, labelangle=45, headlabel="True"] ;
2 [label="petal length (cm) <= 4.85\ngini = 0.49\nsamples = 66\nvalue = [0, 52, 40]\nclass = versicolor", fillcolor="#39e5813b"] ;
0 -> 2 [labeldistance=2.5, labelangle=-45, headlabel="False"] ;
3 [label="sepal length (cm) <= 6.15\ngini = 0.04\nsamples = 32\nvalue = [0, 47, 1]\nclass = versicolor", fillcolor="#39e581fa"] ;
2 -> 3 ;
4 [label="gini = 0.0\nsamples = 25\nvalue = [0, 36, 0]\nclass = versicolor", fillcolor="#39e581ff"] ;
3 -> 4 ;
5 [label="sepal length (cm) <= 6.25\ngini = 0.15\nsamples = 7\nvalue = [0, 11, 1]\nclass = versicolor", fillcolor="#39e581e8"] ;
3 -> 5 ;
6 [label="sepal width (cm) <= 2.5\ngini = 0.5\nsamples = 2\nvalue = [0, 1, 1]\nclass = versicolor", fillcolor="#39e58100"] ;
5 -> 6 ;
7 [label="gini = 0.0\nsamples = 1\nvalue = [0, 1, 0]\nclass = versicolor", fillcolor="#39e581ff"] ;
6 -> 7 ;
8 [label="gini = 0.0\nsamples = 1\nvalue = [0, 0, 1]\nclass = virginica", fillcolor="#8139e5ff"] ;
6 -> 8 ;
9 [label="gini = 0.0\nsamples = 5\nvalue = [0, 10, 0]\nclass = versicolor", fillcolor="#39e581ff"] ;
5 -> 9 ;
10 [label="petal width (cm) <= 1.75\ngini = 0.2\nsamples = 34\nvalue = [0, 5, 39]\nclass = virginica", fillcolor="#8139e5de"] ;
2 -> 10 ;
11 [label="sepal length (cm) <= 7.05\ngini = 0.47\nsamples = 7\nvalue = [0, 5, 3]\nclass = versicolor", fillcolor="#39e58166"] ;
10 -> 11 ;
12 [label="petal width (cm) <= 1.45\ngini = 0.41\nsamples = 6\nvalue = [0, 5, 2]\nclass = versicolor", fillcolor="#39e58199"] ;
11 -> 12 ;
13 [label="gini = 0.0\nsamples = 1\nvalue = [0, 0, 1]\nclass = virginica", fillcolor="#8139e5ff"] ;
12 -> 13 ;
14 [label="sepal width (cm) <= 2.75\ngini = 0.28\nsamples = 5\nvalue = [0, 5, 1]\nclass = versicolor", fillcolor="#39e581cc"] ;
12 -> 14 ;
15 [label="gini = 0.0\nsamples = 2\nvalue = [0, 3, 0]\nclass = versicolor", fillcolor="#39e581ff"] ;
14 -> 15 ;
16 [label="petal length (cm) <= 5.05\ngini = 0.44\nsamples = 3\nvalue = [0, 2, 1]\nclass = versicolor", fillcolor="#39e5817f"] ;
14 -> 16 ;
17 [label="gini = 0.0\nsamples = 2\nvalue = [0, 2, 0]\nclass = versicolor", fillcolor="#39e581ff"] ;
16 -> 17 ;
18 [label="gini = 0.0\nsamples = 1\nvalue = [0, 0, 1]\nclass = virginica", fillcolor="#8139e5ff"] ;
16 -> 18 ;
19 [label="gini = 0.0\nsamples = 1\nvalue = [0, 0, 1]\nclass = virginica", fillcolor="#8139e5ff"] ;
11 -> 19 ;
20 [label="gini = 0.0\nsamples = 27\nvalue = [0, 0, 36]\nclass = virginica", fillcolor="#8139e5ff"] ;
10 -> 20 ;
}